9.000000000000000000e+01,-5.886014800000000102e-02,5.090000000000000000e+02,2.633999991416931152e+01
9.000000000000000000e+01,-5.888430900000000273e-02,5.320000000000000000e+02,3.288800001144409180e+01
9.000000000000000000e+01,-5.896925299999999925e-02,5.550000000000000000e+02,3.943299984931945801e+01
9.000000000000000000e+01,-5.892655499999999852e-02,5.760000000000000000e+02,4.598099994659423828e+01
9.000000000000000000e+01,-5.893740100000000037e-02,6.000000000000000000e+02,5.252499985694885254e+01
9.000000000000000000e+01,-5.896172999999999692e-02,6.240000000000000000e+02,5.906999993324279785e+01
9.000000000000000000e+01,-5.893476400000000059e-02,6.480000000000000000e+02,6.561500000953674316e+01
9.000000000000000000e+01,-5.895805900000000016e-02,6.700000000000000000e+02,7.216299986839294434e+01
9.000000000000000000e+01,-5.881572999999999662e-02,6.940000000000000000e+02,7.870700001716613770e+01
9.000000000000000000e+01,-5.881978899999999733e-02,4.160000000000000000e+02,8.526699995994567871e+01
9.000000000000000000e+01,-5.891062899999999908e-02,4.380000000000000000e+02,9.181599998474121094e+01
9.000000000000000000e+01,-5.882395199999999880e-02,4.590000000000000000e+02,9.835899996757507324e+01
9.000000000000000000e+01,-5.894209300000000096e-02,4.820000000000000000e+02,1.049029998779296875e+02
9.000000000000000000e+01,-5.891744100000000095e-02,5.040000000000000000e+02,1.114489998817443848e+02
9.000000000000000000e+01,-5.887043799999999716e-02,5.260000000000000000e+02,1.179930000305175781e+02
9.000000000000000000e+01,-5.898767500000000330e-02,5.490000000000000000e+02,1.245369999408721924e+02
9.000000000000000000e+01,-5.893914599999999782e-02,5.730000000000000000e+02,1.310820000171661377e+02
9.000000000000000000e+01,-5.892698200000000275e-02,5.960000000000000000e+02,1.376250000000000000e+02
9.000000000000000000e+01,-5.895194399999999918e-02,6.190000000000000000e+02,1.441710000038146973e+02
9.000000000000000000e+01,-5.890148900000000132e-02,6.410000000000000000e+02,1.507149999141693115e+02
9.000000000000000000e+01,-5.887653999999999804e-02,6.640000000000000000e+02,1.572589998245239258e+02
9.000000000000000000e+01,-5.894312799999999741e-02,6.840000000000000000e+02,1.638039999008178711e+02
9.000000000000000000e+01,-5.894709599999999744e-02,7.080000000000000000e+02,1.703480000495910645e+02
9.000000000000000000e+01,-5.891263199999999950e-02,7.290000000000000000e+02,1.768919999599456787e+02
9.000000000000000000e+01,-5.890373799999999715e-02,7.520000000000000000e+02,1.834400000572204590e+02
9.000000000000000000e+01,-5.896319099999999813e-02,7.760000000000000000e+02,1.899830000400543213e+02
9.000000000000000000e+01,-5.892874000000000029e-02,8.010000000000000000e+02,1.965279998779296875e+02
9.000000000000000000e+01,-5.891815200000000141e-02,8.230000000000000000e+02,2.030729999542236328e+02
9.000000000000000000e+01,-5.895732199999999951e-02,8.460000000000000000e+02,2.096169998645782471e+02
9.000000000000000000e+01,-5.891411900000000090e-02,8.670000000000000000e+02,2.161670000553131104e+02
9.000000000000000000e+01,-5.890327299999999905e-02,8.890000000000000000e+02,2.227159998416900635e+02
9.000000000000000000e+01,-5.895273300000000022e-02,9.100000000000000000e+02,2.292589998245239258e+02
9.000000000000000000e+01,-5.893449199999999805e-02,9.340000000000000000e+02,2.358099999427795410e+02
9.000000000000000000e+01,-5.891245099999999763e-02,9.560000000000000000e+02,2.423529999256134033e+02
9.000000000000000000e+01,-5.900428600000000301e-02,9.770000000000000000e+02,2.488969998359680176e+02
9.000000000000000000e+01,-5.889437899999999670e-02,9.990000000000000000e+02,2.554429998397827148e+02
9.000000000000000000e+01,-5.890739700000000023e-02,1.021000000000000000e+03,2.619869999885559082e+02
9.000000000000000000e+01,-5.895622300000000204e-02,1.044000000000000000e+03,2.685309998989105225e+02
9.000000000000000000e+01,-5.884457099999999830e-02,1.065000000000000000e+03,2.750750000476837158e+02
9.000000000000000000e+01,-5.892994199999999905e-02,1.087000000000000000e+03,2.816189999580383301e+02
9.000000000000000000e+01,-5.900447999999999804e-02,1.110000000000000000e+03,2.881649999618530273e+02
9.000000000000000000e+01,-5.898629200000000267e-02,1.134000000000000000e+03,2.947089998722076416e+02
9.000000000000000000e+01,-5.889446999999999738e-02,1.155000000000000000e+03,3.012530000209808350e+02
9.000000000000000000e+01,-5.902946800000000160e-02,1.178000000000000000e+03,3.078029999732971191e+02
9.000000000000000000e+01,-5.885549400000000125e-02,1.199000000000000000e+03,3.143459999561309814e+02
9.000000000000000000e+01,-5.895025000000000265e-02,1.222000000000000000e+03,3.208959999084472656e+02
9.000000000000000000e+01,-5.897801800000000011e-02,1.242000000000000000e+03,3.274409999847412109e+02
9.000000000000000000e+01,-5.880609900000000057e-02,1.266000000000000000e+03,3.339849998950958252e+02
9.000000000000000000e+01,-5.889472800000000036e-02,1.290000000000000000e+03,3.405369999408721924e+02
9.000000000000000000e+01,-5.892045299999999763e-02,1.313000000000000000e+03,3.470839998722076416e+02
9.000000000000000000e+01,-5.892849399999999793e-02,1.335000000000000000e+03,3.536289999485015869e+02
9.000000000000000000e+01,-5.886100100000000307e-02,1.356000000000000000e+03,3.601779999732971191e+02
9.000000000000000000e+01,-5.889104399999999656e-02,1.379000000000000000e+03,3.667219998836517334e+02
9.000000000000000000e+01,-5.894345100000000087e-02,1.401000000000000000e+03,3.732660000324249268e+02
9.000000000000000000e+01,-5.894470500000000002e-02,1.425000000000000000e+03,3.798099999427795410e+02
9.000000000000000000e+01,-5.882587799999999811e-02,1.450000000000000000e+03,3.863539998531341553e+02
9.000000000000000000e+01,-5.901841599999999716e-02,1.474000000000000000e+03,3.928999998569488525e+02
9.000000000000000000e+01,-5.892841599999999735e-02,1.495000000000000000e+03,3.994440000057220459e+02
9.000000000000000000e+01,-5.893712899999999782e-02,1.518000000000000000e+03,4.059879999160766602e+02
9.000000000000000000e+01,-5.886897700000000289e-02,1.540000000000000000e+03,4.125329999923706055e+02
9.000000000000000000e+01,-5.892871400000000010e-02,1.562000000000000000e+03,4.190759999752044678e+02
9.000000000000000000e+01,-5.887235100000000332e-02,1.585000000000000000e+03,4.256259999275207520e+02
9.000000000000000000e+01,-5.891919899999999849e-02,1.446000000000000000e+03,4.321689999103546143e+02
9.000000000000000000e+01,-5.890677600000000097e-02,1.468000000000000000e+03,4.387130000591278076e+02
9.000000000000000000e+01,-5.887584099999999820e-02,1.492000000000000000e+03,4.452569999694824219e+02
9.000000000000000000e+01,-5.881666099999999925e-02,1.516000000000000000e+03,4.518009998798370361e+02
9.000000000000000000e+01,-5.883137199999999983e-02,1.539000000000000000e+03,4.583450000286102295e+02
9.000000000000000000e+01,-5.902093600000000301e-02,1.563000000000000000e+03,4.648899998664855957e+02
9.000000000000000000e+01,-5.905896800000000335e-02,1.585000000000000000e+03,4.714329998493194580e+02
9.000000000000000000e+01,-5.890971099999999655e-02,1.606000000000000000e+03,4.779819998741149902e+02
9.000000000000000000e+01,-5.883552100000000173e-02,1.629000000000000000e+03,4.845249998569488525e+02
9.000000000000000000e+01,-5.884150700000000123e-02,1.653000000000000000e+03,4.910739998817443848e+02
9.000000000000000000e+01,-5.900778999999999747e-02,1.674000000000000000e+03,4.976180000305175781e+02
9.000000000000000000e+01,-5.894385199999999797e-02,1.698000000000000000e+03,5.041670000553131104e+02
9.000000000000000000e+01,-5.896260899999999916e-02,1.722000000000000000e+03,5.107109999656677246e+02
9.000000000000000000e+01,-5.891943200000000075e-02,1.745000000000000000e+03,5.172560000419616699e+02
9.000000000000000000e+01,-5.883411200000000091e-02,1.768000000000000000e+03,5.237999999523162842e+02
9.000000000000000000e+01,-5.888361100000000237e-02,1.790000000000000000e+03,5.303459999561309814e+02
9.000000000000000000e+01,-5.891520499999999827e-02,1.814000000000000000e+03,5.368949999809265137e+02
9.000000000000000000e+01,-5.892259899999999911e-02,1.838000000000000000e+03,5.434379999637603760e+02
9.000000000000000000e+01,-5.885461499999999901e-02,1.860000000000000000e+03,5.499839999675750732e+02
9.000000000000000000e+01,-5.899646499999999794e-02,1.884000000000000000e+03,5.565329999923706055e+02
9.000000000000000000e+01,-5.894352800000000198e-02,1.907000000000000000e+03,5.630769999027252197e+02
9.000000000000000000e+01,-5.895880800000000144e-02,1.930000000000000000e+03,5.696219999790191650e+02
9.000000000000000000e+01,-5.886369000000000323e-02,1.951000000000000000e+03,5.761649999618530273e+02
9.000000000000000000e+01,-5.886107899999999671e-02,1.974000000000000000e+03,5.827109999656677246e+02
9.000000000000000000e+01,-5.892915299999999801e-02,1.997000000000000000e+03,5.892619998455047607e+02
9.000000000000000000e+01,-5.899385399999999835e-02,2.019000000000000000e+03,5.958099999427795410e+02
9.000000000000000000e+01,-5.902008300000000096e-02,2.041000000000000000e+03,6.023559999465942383e+02
9.000000000000000000e+01,-5.893235899999999666e-02,2.063000000000000000e+03,6.089049999713897705e+02
9.000000000000000000e+01,-5.886485300000000170e-02,2.085000000000000000e+03,6.154489998817443848e+02
9.000000000000000000e+01,-5.893107899999999733e-02,2.109000000000000000e+03,6.220000000000000000e+02
9.000000000000000000e+01,-5.900129999999999958e-02,2.131000000000000000e+03,6.285479998588562012e+02
9.000000000000000000e+01,-5.896876200000000096e-02,2.153000000000000000e+03,6.350929999351501465e+02
9.000000000000000000e+01,-5.889789499999999872e-02,2.176000000000000000e+03,6.416369998455047607e+02
9.000000000000000000e+01,-5.897055899999999878e-02,1.872000000000000000e+03,6.481859998703002930e+02
9.000000000000000000e+01,-5.894610100000000075e-02,1.893000000000000000e+03,6.547309999465942383e+02
9.000000000000000000e+01,-5.905631799999999654e-02,1.915000000000000000e+03,6.612799999713897705e+02
9.000000000000000000e+01,-5.893328999999999929e-02,1.937000000000000000e+03,6.678239998817443848e+02
9.000000000000000000e+01,-5.911084500000000214e-02,1.960000000000000000e+03,6.743689999580383301e+02
